/*!
 * The following copyright notice may not be removed under any circumstances.
 * 
 * Copyright:
 * Aldo is the intellectual property of Sacha Rein  2007. All rights reserved.
 * 
 * Manufacturer:
 * Sacha Rein
 * 
 * Designer:
 * Rein Sacha
 * 
 * Vendor URL:
 * http://www.trypo.com
 */
Cufon.registerFont({"w":897,"face":{"font-family":"aldo","font-weight":600,"font-stretch":"normal","units-per-em":"2048","panose-1":"2 0 5 0 0 0 0 2 0 4","ascent":"1638","descent":"-410","x-height":"16","bbox":"-176 -1602 1221 436.02","underline-thickness":"102","underline-position":"-613","unicode-range":"U+0020-U+007A"},"glyphs":{" ":{"w":409},"!":{"d":"260,0r0,-182r178,0r0,182r-178,0xm262,-379r0,-1110r174,0r0,1110r-174,0","w":602},"\"":{"d":"-2,-1198r0,-57v83,-5,97,-78,90,-168r-88,2r0,-181r176,0v-2,127,14,273,-44,344v-31,38,-74,60,-134,60xm274,-1198r0,-57v83,-5,102,-82,88,-168r-86,2r0,-181r177,0v-2,127,14,273,-44,344v-31,38,-74,60,-135,60","w":1024},"-":{"d":"0,-438r0,-146r696,0r0,146r-696,0"},".":{"d":"0,0r0,-180r176,0r0,180r-176,0","w":376},"0":{"d":"348,14v-229,0,-348,-81,-348,-299r0,-970v9,-180,143,-248,348,-248v143,0,236,35,297,100v41,44,51,98,51,168r0,1002v-9,180,-144,247,-348,247xm342,-1350v-108,0,-170,39,-170,148r0,936v2,93,70,127,170,127v111,0,185,-34,180,-146r2,0r0,-917r-2,0v6,-113,-68,-148,-180,-148"},"1":{"d":"0,-1090r0,-176r266,-92v62,-19,85,-60,84,-129r172,0r0,1487r-172,0r0,-1212","w":722},"2":{"d":"696,-989v10,179,-82,243,-225,293r-215,75v-58,13,-84,56,-84,107r0,371r524,0r0,143r-696,0r0,-561v8,-94,75,-170,152,-197r288,-102v62,-19,83,-60,82,-129r0,-230v-3,-93,-66,-130,-170,-129v-110,1,-186,35,-180,148r-172,0v-13,-220,119,-299,348,-301v143,-1,236,38,297,102v81,86,42,258,51,410"},"3":{"d":"621,-745v57,45,84,123,75,225v-14,156,34,340,-51,434v-60,65,-154,100,-297,100v-143,0,-236,-35,-297,-100v-47,-51,-53,-112,-51,-199r174,0v-6,111,71,146,180,146v107,0,170,-38,170,-146r0,-256v-4,-92,-68,-128,-170,-127r-180,0r0,-155r182,0v108,-1,168,-40,168,-148r0,-250v-3,-93,-68,-129,-170,-129v-110,0,-186,35,-180,148r-174,0v-13,-220,119,-299,348,-301v143,-1,236,37,297,102v45,49,51,108,51,189r0,294v-1,79,-29,134,-75,173","w":899},"4":{"d":"225,-696v-147,-40,-225,-118,-225,-293r0,-496r174,0r0,514v-3,112,127,126,212,157r89,32r49,14r0,-717r174,0r0,1485r-174,0r0,-512v-2,-112,-132,-123,-222,-158","w":899},"5":{"d":"354,-934v-109,0,-186,34,-180,146r-174,0r0,-697r696,0r0,144r-524,0r0,276v96,-31,286,-28,368,7v108,46,156,120,156,270r0,557v-9,180,-143,247,-348,247v-143,0,-236,-35,-297,-100v-48,-52,-53,-113,-51,-201r172,0v-6,113,70,148,180,148v110,0,172,-37,172,-148r0,-522v-3,-93,-69,-127,-170,-127"},"6":{"d":"473,-788v146,40,235,115,225,292v-9,149,32,322,-51,410v-60,65,-154,100,-297,100v-144,0,-236,-35,-298,-100v-46,-48,-52,-107,-52,-188r0,-979v9,-180,145,-249,350,-250v143,-1,236,35,297,100v47,51,53,114,51,201r-174,0v5,-113,-68,-148,-180,-148v-108,0,-170,39,-170,148r0,227v-1,115,137,122,222,159xm344,-139v107,0,180,-32,180,-135r0,-244v1,-110,-129,-125,-213,-154r-137,-47r0,453v2,93,70,127,170,127","w":899},"7":{"d":"2,-561v12,-124,100,-182,223,-225r217,-76v55,-16,82,-55,82,-109r0,-368r-524,0r0,-146r696,0r0,561v-11,127,-109,186,-221,224r-219,75v-62,19,-82,63,-82,131r0,494r-174,0r0,-561r2,0"},"8":{"d":"621,-745v117,82,75,316,75,512v0,180,-143,247,-348,247v-143,0,-236,-35,-297,-100v-47,-51,-54,-112,-51,-199v7,-179,-37,-378,78,-460v-59,-48,-85,-117,-78,-226v10,-155,-34,-339,51,-432v60,-65,154,-100,297,-100v143,0,236,37,297,102v45,49,51,108,51,189r0,294v-1,79,-29,134,-75,173xm354,-668v-110,0,-180,35,-180,148r0,258v5,91,78,123,180,123v107,0,170,-38,170,-146r0,-256v-3,-93,-69,-127,-170,-127xm354,-1350v-107,0,-180,33,-180,138r0,268v7,90,77,121,180,121v108,0,170,-39,170,-148r0,-250v-3,-93,-69,-129,-170,-129"},"9":{"d":"223,-487v-144,-41,-223,-116,-223,-291r0,-475v8,-182,142,-250,348,-250v143,0,236,37,297,102v45,49,51,108,51,189r0,979v-9,180,-143,247,-348,247v-143,0,-236,-35,-297,-100v-47,-51,-53,-112,-51,-199r172,0v-6,111,71,146,180,146v115,0,179,-42,170,-162v-4,-55,-25,-91,-82,-111xm352,-1350v-107,1,-180,33,-180,138r0,454v3,108,128,124,214,154r136,47r0,-664v-3,-94,-67,-130,-170,-129"},":":{"d":"0,0r0,-180r176,0r0,180r-176,0xm0,-885r0,-180r176,0r0,180r-176,0","w":376},";":{"d":"0,166v89,-4,94,-77,88,-166r-86,0r0,-180r176,0v-2,127,13,272,-44,344v-31,39,-74,61,-134,61r0,-59xm0,-889r0,-180r176,0r0,180r-176,0","w":378},"?":{"d":"371,-1350v-108,0,-175,40,-170,148r-172,0v-12,-218,120,-298,348,-299v143,-1,236,35,297,100v47,51,54,112,51,199v-5,159,26,337,-59,422v-8,16,-22,24,-29,41r-86,110v-32,49,-86,83,-86,156r0,137r-174,0v2,-110,-10,-205,45,-278r170,-224v73,-72,45,-243,45,-387v0,-94,-76,-125,-180,-125xm289,0r0,-182r176,0r0,182r-176,0","w":925},"A":{"d":"0,0r0,-1253v9,-180,143,-248,348,-248v143,0,236,35,297,100v37,39,51,92,51,148r0,1253r-174,0r0,-686r-254,88v-48,14,-96,42,-96,104r0,494r-172,0xm342,-1348v-101,0,-170,36,-170,129r0,482r268,-94v57,-16,82,-56,82,-111r0,-281v-5,-93,-76,-125,-180,-125"},"B":{"d":"696,-285v9,175,-71,285,-233,285r-463,0r0,-1485r463,0v162,7,242,110,233,285v-10,178,39,380,-80,459v117,81,71,276,80,456xm522,-514v5,-109,-66,-148,-174,-148r-176,0r0,519r236,0v68,2,114,-52,114,-113r0,-258xm522,-1214v2,-72,-43,-127,-114,-127r-236,0r0,518r209,0v90,-9,141,-47,141,-146r0,-245"},"C":{"d":"344,-139v111,0,185,-35,180,-146r174,0v13,219,-120,297,-348,299v-144,1,-236,-35,-298,-100v-48,-51,-52,-113,-52,-199r0,-970v9,-180,145,-248,350,-248v143,0,236,35,297,100v47,51,53,114,51,201r-174,0v5,-113,-68,-148,-180,-148v-108,0,-170,39,-170,148r0,936v2,93,70,127,170,127","w":841},"D":{"d":"0,0r0,-1485r465,0v161,7,231,111,231,285r0,969v-9,137,-87,231,-231,231r-465,0xm524,-1200v6,-82,-41,-141,-116,-141r-234,0r0,1198r234,0v75,0,116,-61,116,-142r0,-915"},"E":{"d":"231,0v-161,-7,-231,-112,-231,-285r0,-968v10,-136,87,-232,231,-232r402,0r0,144r-344,0v-75,0,-117,59,-117,141r0,377r371,0r0,161r-371,0r0,398v-1,65,49,121,117,121r344,0r0,143r-402,0","w":833},"F":{"d":"289,-1341v-75,0,-117,59,-117,141r0,377r377,0r0,161r-377,0r0,662r-172,0r0,-1253v9,-136,88,-232,231,-232r408,0r0,144r-350,0","w":782,"k":{"r":57}},"G":{"d":"348,-801v64,-19,125,-59,207,-39v82,20,141,75,141,178r0,429v-9,180,-144,247,-348,247v-143,0,-236,-35,-297,-100v-47,-51,-51,-113,-51,-199r0,-970v9,-180,143,-248,348,-248v143,0,236,35,297,100v47,51,53,114,51,201r-174,0v5,-113,-68,-148,-180,-148v-108,0,-170,39,-170,148r0,936v2,93,70,127,170,127v111,0,180,-34,180,-146r0,-282v2,-63,-8,-104,-78,-89v-23,4,-55,14,-96,27r0,-172","w":899},"H":{"d":"0,0r0,-1485r174,0r0,662r391,0r0,-662r172,0r0,1485r-172,0r0,-662r-391,0r0,662r-174,0","w":937},"I":{"d":"0,0r0,-1485r172,0r0,1485r-172,0","w":372,"k":{"t":47}},"J":{"d":"342,-137v111,0,180,-34,180,-146r0,-1202r174,0r0,1254v-9,180,-144,247,-348,247v-143,0,-236,-35,-297,-100v-47,-51,-53,-113,-51,-199r172,0v-5,108,63,146,170,146"},"K":{"d":"696,-911v-4,111,-60,183,-157,219r241,692r-184,0r-221,-635v-78,36,-201,34,-201,141r0,494r-174,0r0,-1485r174,0r0,748r268,-94v55,-16,82,-57,82,-111r0,-543r172,0r0,574","w":980},"L":{"d":"231,0v-161,-7,-231,-112,-231,-285r0,-1200r172,0r0,1221v-1,65,49,119,117,119r317,0r0,145r-375,0","w":806,"k":{"u":47}},"M":{"d":"344,-1348v-108,0,-170,39,-170,148r0,1200r-174,0r0,-1253v9,-180,145,-248,350,-248v117,0,197,24,260,67v64,-43,144,-68,262,-67v215,3,348,66,349,272r0,1229r-172,0r0,-1223v-6,-93,-76,-124,-181,-125v-110,0,-170,40,-170,148r0,1200r-174,0r0,-1223v-5,-93,-76,-125,-180,-125","w":1421,"k":{"o":-16,"e":-33}},"N":{"d":"342,-1348v-108,0,-170,39,-170,148r0,1200r-172,0r0,-1253v9,-180,143,-248,348,-248v143,0,236,35,297,100v41,45,52,100,51,172r0,1229r-174,0r0,-1223v-4,-94,-76,-125,-180,-125"},"O":{"d":"348,14v-229,0,-348,-81,-348,-299r0,-970v9,-180,143,-248,348,-248v143,0,236,35,297,100v41,44,51,98,51,168r0,1002v-9,180,-144,247,-348,247xm342,-1350v-108,0,-170,39,-170,148r0,936v2,93,70,127,170,127v111,0,185,-34,180,-146r2,0r0,-917r-2,0v6,-113,-68,-148,-180,-148"},"P":{"d":"698,-924v-1,147,-93,211,-225,256r-203,70v-48,14,-96,42,-96,104r0,494r-174,0r0,-1253v9,-180,145,-248,350,-248v143,0,236,35,297,100v45,49,51,109,51,191r0,286xm344,-1348v-108,0,-170,39,-170,148r0,463r268,-94v63,-19,83,-61,82,-130r0,-262v-5,-93,-76,-125,-180,-125","w":899,"k":{"h":-55}},"Q":{"d":"762,287v-163,-50,-358,-109,-406,-273v-146,4,-244,-33,-305,-100v-47,-51,-51,-113,-51,-199r0,-970v9,-180,143,-248,348,-248v143,0,236,35,297,100v42,47,51,102,51,178r0,992v-4,121,-67,187,-166,223v34,85,149,85,232,125r0,172xm344,-1350v-110,0,-170,39,-170,148r0,936v2,93,68,127,170,127v111,0,180,-34,180,-146r0,-940v-5,-93,-76,-125,-180,-125","w":884},"R":{"d":"696,-961v8,146,-47,226,-157,269r241,692r-184,0r-221,-635v-77,35,-201,34,-201,135r0,500r-174,0r0,-1253v9,-180,143,-248,348,-248v143,0,236,35,297,100v47,51,51,114,51,201r0,239xm344,-1348v-108,0,-170,39,-170,148r0,463r268,-94v55,-16,82,-57,82,-109r0,-283v-5,-93,-76,-125,-180,-125","w":903},"S":{"d":"342,-1350v-108,0,-170,39,-170,148r0,258v-1,111,128,124,214,156v32,12,61,24,89,32v128,34,228,109,221,267v-7,147,31,316,-51,403v-60,64,-154,100,-297,100v-143,0,-236,-35,-297,-100v-47,-51,-53,-113,-51,-199r172,0v-5,108,63,146,170,146v111,0,187,-35,180,-146v-8,-125,37,-270,-82,-311r-229,-78v-143,-42,-221,-119,-211,-289v9,-158,-35,-345,51,-440v59,-65,154,-100,297,-100v143,0,236,35,297,100v47,51,53,114,51,201r-174,0v5,-113,-68,-148,-180,-148"},"T":{"d":"-41,-1339r0,-146r696,0r0,146r-262,0r0,1339r-172,0r0,-1339r-262,0","w":798},"U":{"d":"344,-137v111,0,180,-34,180,-146r0,-1202r174,0r0,1233r-2,0v2,197,-134,266,-348,268v-143,1,-236,-35,-297,-100v-47,-51,-51,-113,-51,-199r0,-1202r174,0r0,1221v2,93,70,127,170,127","w":899},"V":{"d":"154,-66v-101,-29,-154,-95,-154,-233r0,-1186r172,0r2,1151v0,110,93,138,174,164v59,19,94,36,148,24v26,-13,26,-44,26,-85r0,-179r2,0r0,-1075r172,0r0,1350v1,122,-74,181,-188,181v-69,0,-110,-25,-171,-47","w":899},"W":{"d":"684,-61v-26,76,-133,134,-235,98r-347,-123v-70,-33,-102,-101,-102,-213r0,-1186r172,0r0,1151v1,109,94,138,176,164v59,19,94,36,148,24v26,-13,26,-44,26,-85r0,-1254r174,0r0,1151v2,108,92,138,174,164v59,19,96,37,150,24v27,-13,27,-43,27,-85r0,-1254r174,0r0,1282v-2,105,4,141,-47,195v-40,43,-126,70,-201,45","w":1423},"X":{"d":"102,-545v-1,-83,36,-139,82,-178r-266,-762r184,0r242,690r199,-69v57,-16,82,-56,82,-111r0,-510r174,0r0,539v-3,88,-40,147,-101,190r265,756r-183,0r-241,-690r-181,63v-57,16,-84,56,-84,111r0,516r-172,0r0,-545","w":1024},"Y":{"d":"223,-668v-146,-42,-223,-117,-223,-293r0,-524r172,0r0,549v4,71,65,98,131,121r219,76r0,-746r174,0r0,1254v-9,180,-144,247,-348,247v-143,0,-236,-35,-297,-100v-48,-52,-53,-116,-51,-205r172,0v-7,112,61,152,170,152v111,0,187,-35,180,-146v-8,-125,37,-270,-82,-311"},"Z":{"d":"123,0v-86,-4,-156,-86,-111,-174r576,-1135v6,-17,-2,-30,-21,-30r-547,0r0,-146r635,0v86,3,155,87,111,174r-576,1135v-6,15,5,31,21,31r569,0r0,145r-657,0","w":980},"_":{"d":"0,0r0,-145r698,0r0,145r-698,0","w":899},"a":{"d":"348,-1085v206,-4,348,77,348,247r0,607v-9,183,-147,247,-348,247v-203,0,-339,-63,-348,-247v-5,-98,-1,-172,40,-238v57,-92,185,-108,289,-151v91,-37,209,-44,195,-189v-9,-89,-76,-121,-176,-123v-119,-2,-169,47,-174,144r-174,0v-13,-225,134,-293,348,-297xm348,-137v125,1,176,-43,176,-154r0,-252v-15,50,-73,49,-118,69v-97,43,-232,48,-232,183v0,114,49,154,174,154"},"b":{"d":"348,16v-206,4,-348,-78,-348,-245r0,-1256r174,0r0,299v3,112,111,116,194,150v105,43,233,59,288,152v33,56,40,110,40,190r0,463v-9,184,-152,243,-348,247xm348,-137v113,2,176,-46,176,-133r0,-424v-5,-20,-2,-61,-16,-78v-39,-77,-138,-81,-218,-118v-44,-20,-105,-17,-116,-71r0,699v6,90,73,123,174,125","k":{"i":29,"f":29}},"c":{"d":"348,-137v125,1,173,-43,176,-154r172,0v3,98,-8,171,-65,221v-63,55,-153,88,-283,86v-203,-2,-348,-63,-348,-247r0,-607v9,-184,151,-246,348,-247v225,-2,360,82,348,297r-172,0v4,-108,-70,-142,-176,-144v-119,-3,-174,47,-174,144r0,497v3,114,49,154,174,154"},"d":{"d":"348,18v-213,-3,-348,-75,-348,-297r0,-415r-2,0v-10,-143,50,-242,156,-279r290,-102v50,-22,78,-66,78,-148r0,-262r174,0r0,1256v-10,167,-144,250,-348,247xm348,-135v101,0,174,-34,174,-125r0,-698v-10,53,-75,51,-118,69v-102,42,-232,50,-232,195r0,424v8,94,71,135,176,135"},"e":{"d":"698,-279v23,265,-219,327,-469,284v-142,-24,-227,-105,-227,-284r0,-559v9,-180,144,-247,348,-247v143,0,236,35,297,100v56,59,53,141,51,246v-3,132,-94,233,-233,233r-156,0v-70,-2,-135,63,-135,135r0,92v2,107,67,142,176,142v111,0,173,-38,174,-142r174,0xm354,-932v-117,0,-180,39,-180,164r0,172v23,-74,141,-54,234,-57v74,-2,123,-63,116,-152v-8,-92,-69,-127,-170,-127","w":862,"k":{"t":29,"i":29}},"f":{"d":"555,-1352v-133,2,-262,8,-250,150r0,133r174,0r0,145r-174,0r0,924r-174,0r0,-924r-131,0r0,-145r131,0v5,-127,-17,-254,51,-332v73,-84,240,-112,412,-98","w":696},"g":{"d":"332,-506v-72,-1,-135,58,-135,135v0,63,13,104,58,120r312,110v90,31,152,118,154,231v2,111,0,201,-66,258v-63,54,-153,86,-282,86v-174,0,-291,-49,-335,-167v-18,-47,-13,-85,-13,-140r0,-965v9,-180,143,-247,348,-247v143,0,236,35,297,100v56,59,53,141,51,246v-2,133,-94,233,-232,233r-157,0xm373,281v125,0,174,-39,174,-154v0,-137,-135,-139,-231,-183v-44,-20,-105,-18,-119,-69r0,252v3,111,50,155,176,154xm377,-932v-117,1,-180,39,-180,164r0,174v23,-74,142,-54,235,-57v74,-2,122,-63,115,-152v-7,-93,-67,-130,-170,-129","w":909},"h":{"d":"0,0r0,-1487r172,0r0,301v5,111,112,116,195,150v105,43,233,59,289,152v36,60,40,119,40,206r0,678r-174,0r0,-707v-3,-137,-132,-141,-232,-183v-45,-19,-106,-18,-118,-71r0,961r-172,0","k":{"w":-57,"t":86}},"i":{"d":"25,0r0,-1069r172,0r0,1069r-172,0xm25,-1276r0,-207r172,0r0,207r-172,0","w":397,"k":{"p":-29}},"j":{"d":"-176,279v109,-2,174,-36,174,-144r0,-1206r174,0r0,1255v-8,181,-143,248,-348,248r0,-153xm-2,-1278r0,-207r174,0r0,207r-174,0","w":372},"k":{"d":"696,-737v-3,91,-42,151,-106,194r188,543r-184,0r-166,-477v-82,35,-186,42,-240,107v-11,14,-16,31,-16,53r0,317r-172,0r0,-1485r172,0r0,924r268,-94v57,-16,82,-56,82,-111r0,-303r174,0r0,332","w":978},"l":{"d":"53,0r0,-1485r172,0r0,1485r-172,0","w":425},"m":{"d":"352,-932v-109,0,-180,34,-180,146r0,786r-172,0r0,-838v9,-180,144,-247,348,-247v117,0,200,23,262,67v62,-44,145,-68,262,-67v214,3,349,65,349,268r0,817r-174,0r0,-805v-4,-92,-68,-128,-170,-127v-110,1,-181,35,-181,146r0,786r-174,0r0,-805v-3,-93,-67,-127,-170,-127","w":1421},"n":{"d":"354,-932v-109,0,-180,34,-180,146r0,786r-174,0r0,-838v9,-180,146,-246,350,-247v143,-1,236,35,297,100v41,44,51,98,51,168r0,817r-174,0r0,-805v-3,-93,-69,-127,-170,-127","w":899,"k":{"n":-29}},"o":{"d":"348,16v-216,0,-348,-72,-348,-270r0,-584v9,-180,143,-247,348,-247v143,0,236,35,297,100v37,39,51,90,51,147r0,607v-9,180,-144,247,-348,247xm342,-932v-108,0,-170,39,-170,148r0,520v3,92,70,127,170,127v112,0,180,-35,180,-148r0,-522v-5,-93,-76,-125,-180,-125"},"p":{"d":"348,-1085v214,4,348,72,348,297r0,462v-1,113,-62,200,-153,232r-293,102v-47,23,-76,66,-76,146r0,262r-174,0r0,-1256v11,-166,143,-249,348,-245xm348,-932v-101,1,-174,33,-174,125r0,698v12,-55,74,-51,119,-71v99,-44,231,-47,231,-193r0,-426v-7,-95,-70,-134,-176,-133","k":{"t":29}},"q":{"d":"348,-1085v204,-4,348,79,348,245r0,1256r-174,0r0,-299v-5,-110,-110,-117,-193,-151v-105,-43,-236,-57,-291,-150v-32,-54,-38,-115,-38,-189r0,-415r-2,0v-14,-225,135,-293,350,-297xm348,-932v-106,-1,-176,39,-176,133r0,437v5,135,133,139,232,182v46,20,105,18,118,71r0,-698v-5,-92,-74,-124,-174,-125"},"r":{"d":"424,-932v-135,-2,-250,9,-250,150r0,782r-174,0r0,-836v3,-218,221,-264,463,-245","w":585,"k":{"e":29}},"s":{"d":"348,-932v-113,3,-184,41,-176,162v7,110,113,115,196,150v104,43,231,59,288,151v41,66,43,140,40,238v-7,183,-147,247,-348,247v-224,0,-362,-75,-348,-307r172,0v3,111,51,155,176,154v125,0,172,-39,174,-154v2,-127,-122,-144,-211,-176v-143,-51,-307,-82,-311,-272r0,-99v8,-169,143,-251,348,-247v214,4,361,72,348,297r-174,0v-5,-96,-55,-147,-174,-144"},"t":{"d":"305,-301v-5,110,64,148,176,147r0,154v-144,2,-236,-35,-298,-100v-45,-48,-52,-105,-52,-185r0,-655r-131,0r0,-145r131,0r0,-273r174,0r0,273r176,0r0,145r-176,0r0,639","w":624},"u":{"d":"344,-139v112,0,183,-35,178,-148r2,0r0,-784r172,0r0,838v-9,180,-144,247,-348,247v-143,0,-236,-35,-297,-100v-41,-45,-52,-99,-51,-170r0,-815r172,0r0,784r2,0v-5,109,60,148,170,148"},"v":{"d":"0,-299r0,-764r172,0r0,707v1,109,94,135,176,161v59,19,94,36,148,25v27,-13,26,-44,26,-86r0,-807r174,0r0,905v-2,119,-76,181,-190,181v-67,0,-115,-30,-169,-49r-183,-62v-92,-27,-154,-87,-154,-211","w":899},"w":{"d":"686,-88v-28,79,-132,136,-235,100r-295,-102v-90,-27,-152,-83,-154,-201r-2,0r0,-774r174,0r0,707v1,109,94,135,176,161v59,19,94,36,148,25v37,-18,26,-87,26,-143r0,-750r174,0r0,707v1,108,93,135,174,161v59,19,96,37,150,25v27,-13,27,-44,27,-86r0,-807r172,0r0,905v0,121,-76,181,-190,181v-66,0,-115,-30,-169,-49","w":1423},"x":{"d":"12,-332v0,-97,49,-160,105,-200r-189,-537r176,0r166,477r183,-63v57,-16,82,-56,82,-111r0,-303r174,0r0,332v-3,90,-44,157,-105,198r187,539r-175,0r-165,-477r-183,63v-57,16,-84,56,-84,111r0,303r-172,0r0,-332","w":913},"y":{"d":"344,283v118,0,188,-39,180,-164v-7,-110,-111,-117,-194,-151v-105,-43,-234,-57,-290,-150v-33,-56,-40,-110,-40,-189r0,-696r174,0r0,707v5,135,133,139,232,182v46,20,106,18,118,72r0,-961r174,0r0,1227r-2,0v5,203,-131,274,-348,276v-143,1,-236,-35,-297,-100v-47,-51,-53,-114,-51,-201r174,0v-5,108,62,148,170,148","w":899},"z":{"d":"160,0v-87,-3,-168,-92,-113,-174r488,-727v6,-13,3,-25,-15,-25r-520,0r0,-145r598,0v104,-3,148,118,90,205r-467,694v-6,16,-4,27,17,27r518,0r0,145r-596,0","w":956},"\u00a0":{"w":409}}});
